digraph Tree {
node [shape=box] ;
0 [label="odor_n <= 0.5\nimpurity = 0.4992\nsamples = 5686\nvalue = [2730, 2956]"] ;
1 [label="stalk-root_c <= 0.5\nimpurity = 0.2926\nsamples = 3214\nvalue = [2642, 572]"] ;
0 -> 1 [labeldistance=2.5, labelangle=45, headlabel="True"] ;
2 [label="stalk-surface-below-ring_y <= 0.5\nimpurity = 0.1337\nsamples = 2819\nvalue = [2616, 203]"] ;
1 -> 2 ;
3 [label="odor_l <= 0.5\nimpurity = 0.0508\nsamples = 2686\nvalue = [2616, 70]"] ;
2 -> 3 ;
4 [label="odor_a <= 0.5\nimpurity = 0.0246\nsamples = 2649\nvalue = [2616, 33]"] ;
3 -> 4 ;
5 [label="impurity = 0.0\nsamples = 2616\nvalue = [2616, 0]"] ;
4 -> 5 ;
6 [label="impurity = 0.0\nsamples = 33\nvalue = [0, 33]"] ;
4 -> 6 ;
7 [label="impurity = 0.0\nsamples = 37\nvalue = [0, 37]"] ;
3 -> 7 ;
8 [label="impurity = 0.0\nsamples = 133\nvalue = [0, 133]"] ;
2 -> 8 ;
9 [label="stalk-color-below-ring_w <= 0.5\nimpurity = 0.123\nsamples = 395\nvalue = [26, 369]"] ;
1 -> 9 ;
10 [label="impurity = 0.0\nsamples = 26\nvalue = [26, 0]"] ;
9 -> 10 ;
11 [label="impurity = 0.0\nsamples = 369\nvalue = [0, 369]"] ;
9 -> 11 ;
12 [label="spore-print-color_r <= 0.5\nimpurity = 0.0687\nsamples = 2472\nvalue = [88, 2384]"] ;
0 -> 12 [labeldistance=2.5, labelangle=-45, headlabel="False"] ;
13 [label="stalk-surface-below-ring_y <= 0.5\nimpurity = 0.0277\nsamples = 2418\nvalue = [34, 2384]"] ;
12 -> 13 ;
14 [label="cap-surface_g <= 0.5\nimpurity = 0.005\nsamples = 2378\nvalue = [6, 2372]"] ;
13 -> 14 ;
15 [label="cap-shape_c <= 0.5\nimpurity = 0.0025\nsamples = 2375\nvalue = [3, 2372]"] ;
14 -> 15 ;
16 [label="gill-size_b <= 0.5\nimpurity = 0.0017\nsamples = 2374\nvalue = [2, 2372]"] ;
15 -> 16 ;
17 [label="bruises_f <= 0.5\nimpurity = 0.0288\nsamples = 137\nvalue = [2, 135]"] ;
16 -> 17 ;
18 [label="impurity = 0.0\nsamples = 2\nvalue = [2, 0]"] ;
17 -> 18 ;
19 [label="impurity = 0.0\nsamples = 135\nvalue = [0, 135]"] ;
17 -> 19 ;
20 [label="impurity = 0.0\nsamples = 2237\nvalue = [0, 2237]"] ;
16 -> 20 ;
21 [label="impurity = 0.0\nsamples = 1\nvalue = [1, 0]"] ;
15 -> 21 ;
22 [label="impurity = 0.0\nsamples = 3\nvalue = [3, 0]"] ;
14 -> 22 ;
23 [label="stalk-root_b <= 0.5\nimpurity = 0.42\nsamples = 40\nvalue = [28, 12]"] ;
13 -> 23 ;
24 [label="impurity = 0.0\nsamples = 28\nvalue = [28, 0]"] ;
23 -> 24 ;
25 [label="impurity = 0.0\nsamples = 12\nvalue = [0, 12]"] ;
23 -> 25 ;
26 [label="impurity = 0.0\nsamples = 54\nvalue = [54, 0]"] ;
12 -> 26 ;
}