digraph Tree {
node [shape=box] ;
0 [label="groove <= 5.5755\nimpurity = 1.5847\nsamples = 203\nvalue = [69, 66, 68]"] ;
1 [label="area <= 13.41\nimpurity = 1.0556\nsamples = 134\nvalue = [68, 65, 1]"] ;
0 -> 1 [labeldistance=2.5, labelangle=45, headlabel="True"] ;
2 [label="asymmetry <= 4.168\nimpurity = 0.6403\nsamples = 80\nvalue = [67, 13, 0]"] ;
1 -> 2 ;
3 [label="area <= 12.71\nimpurity = 0.9745\nsamples = 32\nvalue = [19, 13, 0]"] ;
2 -> 3 ;
4 [label="groove <= 4.981\nimpurity = 0.684\nsamples = 22\nvalue = [18, 4, 0]"] ;
3 -> 4 ;
5 [label="asymmetry <= 3.4255\nimpurity = 0.9183\nsamples = 6\nvalue = [2, 4, 0]"] ;
4 -> 5 ;
6 [label="impurity = 0.0\nsamples = 4\nvalue = [0, 4, 0]"] ;
5 -> 6 ;
7 [label="impurity = 0.0\nsamples = 2\nvalue = [2, 0, 0]"] ;
5 -> 7 ;
8 [label="impurity = 0.0\nsamples = 16\nvalue = [16, 0, 0]"] ;
4 -> 8 ;
9 [label="length <= 5.1055\nimpurity = 0.469\nsamples = 10\nvalue = [1, 9, 0]"] ;
3 -> 9 ;
10 [label="impurity = 0.0\nsamples = 1\nvalue = [1, 0, 0]"] ;
9 -> 10 ;
11 [label="impurity = 0.0\nsamples = 9\nvalue = [0, 9, 0]"] ;
9 -> 11 ;
12 [label="impurity = 0.0\nsamples = 48\nvalue = [48, 0, 0]"] ;
2 -> 12 ;
13 [label="width <= 3.572\nimpurity = 0.2656\nsamples = 54\nvalue = [1, 52, 1]"] ;
1 -> 13 ;
14 [label="width <= 3.154\nimpurity = 0.1371\nsamples = 52\nvalue = [1, 51, 0]"] ;
13 -> 14 ;
15 [label="width <= 3.1515\nimpurity = 0.5917\nsamples = 7\nvalue = [1, 6, 0]"] ;
14 -> 15 ;
16 [label="impurity = 0.0\nsamples = 6\nvalue = [0, 6, 0]"] ;
15 -> 16 ;
17 [label="impurity = 0.0\nsamples = 1\nvalue = [1, 0, 0]"] ;
15 -> 17 ;
18 [label="impurity = 0.0\nsamples = 45\nvalue = [0, 45, 0]"] ;
14 -> 18 ;
19 [label="asymmetry <= 3.146\nimpurity = 1.0\nsamples = 2\nvalue = [0, 1, 1]"] ;
13 -> 19 ;
20 [label="impurity = 0.0\nsamples = 1\nvalue = [0, 1, 0]"] ;
19 -> 20 ;
21 [label="impurity = 0.0\nsamples = 1\nvalue = [0, 0, 1]"] ;
19 -> 21 ;
22 [label="asymmetry <= 2.848\nimpurity = 0.2183\nsamples = 69\nvalue = [1, 1, 67]"] ;
0 -> 22 [labeldistance=2.5, labelangle=-45, headlabel="False"] ;
23 [label="asymmetry <= 2.84\nimpurity = 0.5907\nsamples = 19\nvalue = [1, 1, 17]"] ;
22 -> 23 ;
24 [label="width <= 3.5085\nimpurity = 0.3095\nsamples = 18\nvalue = [0, 1, 17]"] ;
23 -> 24 ;
25 [label="area <= 16.115\nimpurity = 0.9183\nsamples = 3\nvalue = [0, 1, 2]"] ;
24 -> 25 ;
26 [label="impurity = 0.0\nsamples = 2\nvalue = [0, 0, 2]"] ;
25 -> 26 ;
27 [label="impurity = 0.0\nsamples = 1\nvalue = [0, 1, 0]"] ;
25 -> 27 ;
28 [label="impurity = 0.0\nsamples = 15\nvalue = [0, 0, 15]"] ;
24 -> 28 ;
29 [label="impurity = 0.0\nsamples = 1\nvalue = [1, 0, 0]"] ;
23 -> 29 ;
30 [label="impurity = 0.0\nsamples = 50\nvalue = [0, 0, 50]"] ;
22 -> 30 ;
}